digraph Tree {
node [shape=box] ;
0 [label="absolute y_mean <= 7.262\nentropy = 2.035\nsamples = 1135\nvalue = [309, 296, 301, 221, 8]"] ;
1 [label="z_mean <= -9.283\nentropy = 1.243\nsamples = 636\nvalue = [309, 0, 297, 28, 2]"] ;
0 -> 1 [labeldistance=2.5, labelangle=45, headlabel="True"] ;
2 [label="entropy = 0.0\nsamples = 309\nvalue = [309, 0, 0, 0, 0]"] ;
1 -> 2 ;
3 [label="entropy <= 1.286\nentropy = 0.475\nsamples = 327\nvalue = [0, 0, 297, 28, 2]"] ;
1 -> 3 ;
4 [label="entropy = 0.0\nsamples = 28\nvalue = [0, 0, 0, 28, 0]"] ;
3 -> 4 ;
5 [label="x_max <= 2.056\nentropy = 0.058\nsamples = 299\nvalue = [0, 0, 297, 0, 2]"] ;
3 -> 5 ;
6 [label="entropy = 0.0\nsamples = 2\nvalue = [0, 0, 0, 0, 2]"] ;
5 -> 6 ;
7 [label="entropy = 0.0\nsamples = 297\nvalue = [0, 0, 297, 0, 0]"] ;
5 -> 7 ;
8 [label="absolute z_mean <= 0.932\nentropy = 1.109\nsamples = 499\nvalue = [0, 296, 4, 193, 6]"] ;
0 -> 8 [labeldistance=2.5, labelangle=-45, headlabel="False"] ;
9 [label="peaks <= 1.5\nentropy = 0.307\nsamples = 310\nvalue = [0, 295, 0, 13, 2]"] ;
8 -> 9 ;
10 [label="x_min <= 1.368\nentropy = 0.371\nsamples = 14\nvalue = [0, 0, 0, 13, 1]"] ;
9 -> 10 ;
11 [label="entropy = 0.0\nsamples = 13\nvalue = [0, 0, 0, 13, 0]"] ;
10 -> 11 ;
12 [label="entropy = 0.0\nsamples = 1\nvalue = [0, 0, 0, 0, 1]"] ;
10 -> 12 ;
13 [label="dominant frequency <= 12.639\nentropy = 0.033\nsamples = 296\nvalue = [0, 295, 0, 0, 1]"] ;
9 -> 13 ;
14 [label="entropy = 0.0\nsamples = 295\nvalue = [0, 295, 0, 0, 0]"] ;
13 -> 14 ;
15 [label="entropy = 0.0\nsamples = 1\nvalue = [0, 0, 0, 0, 1]"] ;
13 -> 15 ;
16 [label="x_max <= 5.679\nentropy = 0.342\nsamples = 189\nvalue = [0, 1, 4, 180, 4]"] ;
8 -> 16 ;
17 [label="y_max <= -4.837\nentropy = 0.098\nsamples = 182\nvalue = [0, 1, 0, 180, 1]"] ;
16 -> 17 ;
18 [label="entropy = 0.0\nsamples = 179\nvalue = [0, 0, 0, 179, 0]"] ;
17 -> 18 ;
19 [label="entropy = 1.585\nsamples = 3\nvalue = [0, 1, 0, 1, 1]"] ;
17 -> 19 ;
20 [label="y_min <= -9.387\nentropy = 0.985\nsamples = 7\nvalue = [0, 0, 4, 0, 3]"] ;
16 -> 20 ;
21 [label="entropy = 0.0\nsamples = 3\nvalue = [0, 0, 0, 0, 3]"] ;
20 -> 21 ;
22 [label="entropy = 0.0\nsamples = 4\nvalue = [0, 0, 4, 0, 0]"] ;
20 -> 22 ;
}